digraph Tree {
node [shape=box, fontname="helvetica"] ;
edge [fontname="helvetica"] ;
0 [label="X[27] <= 0.142\ngini = 0.462\nsamples = 455\nvalue = [165, 290]"] ;
1 [label="X[23] <= 957.45\ngini = 0.146\nsamples = 303\nvalue = [24, 279]"] ;
0 -> 1 [labeldistance=2.5, labelangle=45, headlabel="True"] ;
2 [label="X[22] <= 107.75\ngini = 0.073\nsamples = 288\nvalue = [11, 277]"] ;
1 -> 2 ;
3 [label="X[10] <= 1.048\ngini = 0.036\nsamples = 269\nvalue = [5, 264]"] ;
2 -> 3 ;
4 [label="X[13] <= 48.975\ngini = 0.029\nsamples = 268\nvalue = [4, 264]"] ;
3 -> 4 ;
5 [label="X[6] <= 0.139\ngini = 0.022\nsamples = 265\nvalue = [3, 262]"] ;
4 -> 5 ;
6 [label="X[14] <= 0.003\ngini = 0.015\nsamples = 262\nvalue = [2, 260]"] ;
5 -> 6 ;
7 [label="X[25] <= 0.2\ngini = 0.278\nsamples = 6\nvalue = [1, 5]"] ;
6 -> 7 ;
8 [label="gini = 0.0\nsamples = 5\nvalue = [0, 5]"] ;
7 -> 8 ;
9 [label="gini = 0.0\nsamples = 1\nvalue = [1, 0]"] ;
7 -> 9 ;
10 [label="X[21] <= 32.83\ngini = 0.008\nsamples = 256\nvalue = [1, 255]"] ;
6 -> 10 ;
11 [label="gini = 0.0\nsamples = 239\nvalue = [0, 239]"] ;
10 -> 11 ;
12 [label="X[21] <= 33.805\ngini = 0.111\nsamples = 17\nvalue = [1, 16]"] ;
10 -> 12 ;
13 [label="gini = 0.0\nsamples = 1\nvalue = [1, 0]"] ;
12 -> 13 ;
14 [label="gini = 0.0\nsamples = 16\nvalue = [0, 16]"] ;
12 -> 14 ;
15 [label="X[28] <= 0.296\ngini = 0.444\nsamples = 3\nvalue = [1, 2]"] ;
5 -> 15 ;
16 [label="gini = 0.0\nsamples = 1\nvalue = [1, 0]"] ;
15 -> 16 ;
17 [label="gini = 0.0\nsamples = 2\nvalue = [0, 2]"] ;
15 -> 17 ;
18 [label="X[25] <= 0.085\ngini = 0.444\nsamples = 3\nvalue = [1, 2]"] ;
4 -> 18 ;
19 [label="gini = 0.0\nsamples = 1\nvalue = [1, 0]"] ;
18 -> 19 ;
20 [label="gini = 0.0\nsamples = 2\nvalue = [0, 2]"] ;
18 -> 20 ;
21 [label="gini = 0.0\nsamples = 1\nvalue = [1, 0]"] ;
3 -> 21 ;
22 [label="X[0] <= 14.08\ngini = 0.432\nsamples = 19\nvalue = [6, 13]"] ;
2 -> 22 ;
23 [label="gini = 0.0\nsamples = 4\nvalue = [4, 0]"] ;
22 -> 23 ;
24 [label="X[16] <= 0.044\ngini = 0.231\nsamples = 15\nvalue = [2, 13]"] ;
22 -> 24 ;
25 [label="gini = 0.0\nsamples = 13\nvalue = [0, 13]"] ;
24 -> 25 ;
26 [label="gini = 0.0\nsamples = 2\nvalue = [2, 0]"] ;
24 -> 26 ;
27 [label="X[8] <= 0.152\ngini = 0.231\nsamples = 15\nvalue = [13, 2]"] ;
1 -> 27 ;
28 [label="gini = 0.0\nsamples = 2\nvalue = [0, 2]"] ;
27 -> 28 ;
29 [label="gini = 0.0\nsamples = 13\nvalue = [13, 0]"] ;
27 -> 29 ;
30 [label="X[23] <= 729.55\ngini = 0.134\nsamples = 152\nvalue = [141, 11]"] ;
0 -> 30 [labeldistance=2.5, labelangle=-45, headlabel="False"] ;
31 [label="X[4] <= 0.108\ngini = 0.49\nsamples = 14\nvalue = [6, 8]"] ;
30 -> 31 ;
32 [label="gini = 0.0\nsamples = 8\nvalue = [0, 8]"] ;
31 -> 32 ;
33 [label="gini = 0.0\nsamples = 6\nvalue = [6, 0]"] ;
31 -> 33 ;
34 [label="X[13] <= 14.18\ngini = 0.043\nsamples = 138\nvalue = [135, 3]"] ;
30 -> 34 ;
35 [label="gini = 0.0\nsamples = 1\nvalue = [0, 1]"] ;
34 -> 35 ;
36 [label="X[26] <= 0.203\ngini = 0.029\nsamples = 137\nvalue = [135, 2]"] ;
34 -> 36 ;
37 [label="gini = 0.0\nsamples = 1\nvalue = [0, 1]"] ;
36 -> 37 ;
38 [label="X[1] <= 15.37\ngini = 0.015\nsamples = 136\nvalue = [135, 1]"] ;
36 -> 38 ;
39 [label="X[20] <= 16.96\ngini = 0.32\nsamples = 5\nvalue = [4, 1]"] ;
38 -> 39 ;
40 [label="gini = 0.0\nsamples = 1\nvalue = [0, 1]"] ;
39 -> 40 ;
41 [label="gini = 0.0\nsamples = 4\nvalue = [4, 0]"] ;
39 -> 41 ;
42 [label="gini = 0.0\nsamples = 131\nvalue = [131, 0]"] ;
38 -> 42 ;
}
